{"learner":{"attributes":{"scikit_learn":"{\"_estimator_type\": \"classifier\"}"},"feature_names":["username_length","num_digits_in_username","profile_has_picture","profile_has_bio","bio_word_count","spam_word_count","suspicious_words_in_bio","bio_sentiment_score","followers_count","follows_count","friend_follower_ratio","posts_count","activity_score","joined_recently","is_verified"],"feature_types":["int","int","int","int","int","int","int","float","int","int","float","int","float","int","int"],"gradient_booster":{"model":{"gbtree_model_param":{"num_parallel_tree":"1","num_trees":"100"},"iteration_indptr":[0,1,2,3,4,5,6,7,8,9,10,11,12,13,14,15,16,17,18,19,20,21,22,23,24,25,26,27,28,29,30,31,32,33,34,35,36,37,38,39,40,41,42,43,44,45,46,47,48,49,50,51,52,53,54,55,56,57,58,59,60,61,62,63,64,65,66,67,68,69,70,71,72,73,74,75,76,77,78,79,80,81,82,83,84,85,86,87,88,89,90,91,92,93,94,95,96,97,98,99,100],"tree_info":[0,0,0,0,0,0,0,0,0,0,0,0,0,0,0,0,0,0,0,0,0,0,0,0,0,0,0,0,0,0,0,0,0,0,0,0,0,0,0,0,0,0,0,0,0,0,0,0,0,0,0,0,0,0,0,0,0,0,0,0,0,0,0,0,0,0,0,0,0,0,0,0,0,0,0,0,0,0,0,0,0,0,0,0,0,0,0,0,0,0,0,0,0,0,0,0,0,0,0,0],"trees":[{"base_weights":[-1.210316E-7,-1.9853983E0,5.992551E-1,-6.0066086E-1,5.912722E-1],"categories":[],"categories_nodes":[],"categories_segments":[],"categories_sizes":[],"default_left":[0,0,0,0,0],"id":0,"left_children":[1,3,-1,-1,-1],"loss_changes":[1.3881306E5,1.1710078E3,0E0,0E0,0E0],"parents":[2147483647,0,0,1,1],"right_children":[2,4,-1,-1,-1],"split_conditions":[1.2E1,1.54E2,5.992551E-1,-6.0066086E-1,5.912722E-1],"split_indices":[11,8,0,0,0],"split_type":[0,0,0,0,0],"sum_hessian":[3.499995E4,1.7553225E4,1.7446725E4,1.7479475E4,7.374989E1],"tree_param":{"num_deleted":"0","num_feature":"15","num_nodes":"5","size_leaf_vector":"1"}},{"base_weights":[1.9380108E-4,-1.5365427E0,4.6434683E-1,-1.5495919E0,4.5890638E-1,-1.0823211E-1,-4.6489632E-1],"categories":[],"categories_nodes":[],"categories_segments":[],"categories_sizes":[],"default_left":[0,0,0,0,0,0,0],"id":1,"left_children":[1,3,-1,5,-1,-1,-1],"loss_changes":[7.618237E4,6.4547656E2,0E0,6.2890625E-1,0E0,0E0,0E0],"parents":[2147483647,0,0,1,1,3,3],"right_children":[2,4,-1,6,-1,-1,-1],"split_conditions":[1.2E1,1.54E2,4.6434683E-1,1.03E0,4.5890638E-1,-1.0823211E-1,-4.6489632E-1],"split_indices":[11,8,0,10,0,0,0],"split_type":[0,0,0,0,0,0,0],"sum_hessian":[3.2030309E4,1.6071716E4,1.5958593E4,1.60041E4,6.7615814E1,1.1444907E0,1.6002955E4],"tree_param":{"num_deleted":"0","num_feature":"15","num_nodes":"7","size_leaf_vector":"1"}},{"base_weights":[2.3348666E-4,-1.3338132E0,4.032874E-1,-1.3451903E0,3.9768508E-1,-9.2849135E-2,-4.0357593E-1],"categories":[],"categories_nodes":[],"categories_segments":[],"categories_sizes":[],"default_left":[0,0,0,0,0,0,0],"id":2,"left_children":[1,3,-1,5,-1,-1,-1],"loss_changes":[4.7868977E4,4.0717383E2,0E0,4.5117188E-1,0E0,0E0,0E0],"parents":[2147483647,0,0,1,1,3,3],"right_children":[2,4,-1,6,-1,-1,-1],"split_conditions":[1.2E1,1.54E2,4.032874E-1,1.03E0,3.9768508E-1,-9.2849135E-2,-4.0357593E-1],"split_indices":[11,8,0,10,0,0,0],"split_type":[0,0,0,0,0,0,0],"sum_hessian":[2.6695166E4,1.3397481E4,1.3297684E4,1.3340903E4,5.6578506E1,1.1061246E0,1.3339797E4],"tree_param":{"num_deleted":"0","num_feature":"15","num_nodes":"7","size_leaf_vector":"1"}},{"base_weights":[2.5007522E-4,-1.2200217E0,3.6899388E-1,-1.2304838E0,3.6237177E-1,-7.983375E-2,-3.691667E-1],"categories":[],"categories_nodes":[],"categories_segments":[],"categories_sizes":[],"default_left":[0,0,0,0,0,0,0],"id":3,"left_children":[1,3,-1,5,-1,-1,-1],"loss_changes":[3.197583E4,2.731631E2,0E0,4.111328E-1,0E0,0E0,0E0],"parents":[2147483647,0,0,1,1,3,3],"right_children":[2,4,-1,6,-1,-1,-1],"split_conditions":[1.2E1,1.54E2,3.6899388E-1,1.03E0,3.6237177E-1,-7.983375E-2,-3.691667E-1],"split_indices":[11,8,0,10,0,0,0],"split_type":[0,0,0,0,0,0,0],"sum_hessian":[2.1306637E4,1.0694447E4,1.0612189E4,1.0649053E4,4.5394176E1,1.0698042E0,1.0647983E4],"tree_param":{"num_deleted":"0","num_feature":"15","num_nodes":"7","size_leaf_vector":"1"}},{"base_weights":[2.624923E-4,-1.1493158E0,3.476864E-1,-1.159237E0,3.3943027E-1,-6.875351E-2,-3.477977E-1],"categories":[],"categories_nodes":[],"categories_segments":[],"categories_sizes":[],"default_left":[0,0,0,0,0,0,0],"id":4,"left_children":[1,3,-1,5,-1,-1,-1],"loss_changes":[2.210548E4,1.8981152E2,0E0,4.189453E-1,0E0,0E0,0E0],"parents":[2147483647,0,0,1,1,3,3],"right_children":[2,4,-1,6,-1,-1,-1],"split_conditions":[1.2E1,1.54E2,3.476864E-1,1.03E0,3.3943027E-1,-6.875351E-2,-3.477977E-1],"split_indices":[11,8,0,10,0,0,0],"split_type":[0,0,0,0,0,0,0],"sum_hessian":[1.6593613E4,8.329568E3,8.264044E3,8.293982E3,3.5586647E1,1.0364637E0,8.292945E3],"tree_param":{"num_deleted":"0","num_feature":"15","num_nodes":"7","size_leaf_vector":"1"}},{"base_weights":[2.765628E-4,-1.1027337E0,3.3365893E-1,-1.1123325E0,3.2313332E-1,-5.9280645E-2,-3.3373386E-1],"categories":[],"categories_nodes":[],"categories_segments":[],"categories_sizes":[],"default_left":[0,0,0,0,0,0,0],"id":5,"left_children":[1,3,-1,5,-1,-1,-1],"loss_changes":[1.5611131E4,1.3489941E2,0E0,4.4140625E-1,0E0,0E0,0E0],"parents":[2147483647,0,0,1,1,3,3],"right_children":[2,4,-1,6,-1,-1,-1],"split_conditions":[1.2E1,1.54E2,3.3365893E-1,1.03E0,3.2313332E-1,-5.9280645E-2,-3.3373386E-1],"split_indices":[11,8,0,10,0,0,0],"split_type":[0,0,0,0,0,0,0],"sum_hessian":[1.2726619E4,6.38891E3,6.337709E3,6.361388E3,2.7522217E1,1.006448E0,6.360382E3],"tree_param":{"num_deleted":"0","num_feature":"15","num_nodes":"7","size_leaf_vector":"1"}},{"base_weights":[2.9449083E-4,-1.07087E0,3.240802E-1,-1.0802913E0,3.1054088E-1,-1.1640515E-1,-3.2413217E-1],"categories":[],"categories_nodes":[],"categories_segments":[],"categories_sizes":[],"default_left":[0,0,0,0,0,0,0],"id":6,"left_children":[1,3,-1,5,-1,-1,-1],"loss_changes":[1.118032E4,9.739014E1,0E0,8.0078125E-2,0E0,0E0,0E0],"parents":[2147483647,0,0,1,1,3,3],"right_children":[2,4,-1,6,-1,-1,-1],"split_conditions":[1.2E1,1.54E2,3.240802E-1,1.06E0,3.1054088E-1,-1.1640515E-1,-3.2413217E-1],"split_indices":[11,8,0,10,0,0,0],"split_type":[0,0,0,0,0,0,0],"sum_hessian":[9.662631E3,4.8511025E3,4.8115283E3,4.8299824E3,2.111989E1,1.6014111E0,4.828381E3],"tree_param":{"num_deleted":"0","num_feature":"15","num_nodes":"7","size_leaf_vector":"1"}},{"base_weights":[3.1307657E-4,-1.0484865E0,3.1737584E-1,-1.0578376E0,2.9992735E-1,-1.000212E-1,-3.174126E-1],"categories":[],"categories_nodes":[],"categories_segments":[],"categories_sizes":[],"default_left":[0,0,0,0,0,0,0],"id":7,"left_children":[1,3,-1,5,-1,-1,-1],"loss_changes":[8.083909E3,7.1143555E1,0E0,1.8701172E-1,0E0,0E0,0E0],"parents":[2147483647,0,0,1,1,3,3],"right_children":[2,4,-1,6,-1,-1,-1],"split_conditions":[1.2E1,1.54E2,3.1737584E-1,1.06E0,2.9992735E-1,-1.000212E-1,-3.174126E-1],"split_indices":[11,8,0,10,0,0,0],"split_type":[0,0,0,0,0,0,0],"sum_hessian":[7.2859414E3,3.658206E3,3.627735E3,3.642062E3,1.6144018E1,1.488256E0,3.640574E3],"tree_param":{"num_deleted":"0","num_feature":"15","num_nodes":"7","size_leaf_vector":"1"}},{"base_weights":[3.382845E-4,-1.032435E0,3.1259945E-1,-1.0418061E0,2.9017448E-1,-8.5912116E-2,-3.1262594E-1],"categories":[],"categories_nodes":[],"categories_segments":[],"categories_sizes":[],"default_left":[0,0,0,0,0,0,0],"id":8,"left_children":[1,3,-1,5,-1,-1,-1],"loss_changes":[5.8840596E3,5.2473633E1,0E0,2.8051758E-1,0E0,0E0,0E0],"parents":[2147483647,0,0,1,1,3,3],"right_children":[2,4,-1,6,-1,-1,-1],"split_conditions":[1.2E1,1.54E2,3.1259945E-1,1.06E0,2.9017448E-1,-8.5912116E-2,-3.1262594E-1],"split_indices":[11,8,0,10,0,0,0],"split_type":[0,0,0,0,0,0,0],"sum_hessian":[5.467481E3,2.7454558E3,2.7220254E3,2.7331267E3,1.23290825E1,1.3936882E0,2.7317332E3],"tree_param":{"num_deleted":"0","num_feature":"15","num_nodes":"7","size_leaf_vector":"1"}},{"base_weights":[3.7407983E-4,-1.0207021E0,3.0914918E-1,-1.0301776E0,2.8051123E-1,-7.376479E-2,-3.0916855E-1],"categories":[],"categories_nodes":[],"categories_segments":[],"categories_sizes":[],"default_left":[0,0,0,0,0,0,0],"id":9,"left_children":[1,3,-1,5,-1,-1,-1],"loss_changes":[4.3030327E3,3.9036865E1,0E0,3.6279297E-1,0E0,0E0,0E0],"parents":[2147483647,0,0,1,1,3,3],"right_children":[2,4,-1,6,-1,-1,-1],"split_conditions":[1.2E1,1.54E2,3.0914918E-1,1.06E0,2.8051123E-1,-7.376479E-2,-3.0916855E-1],"split_indices":[11,8,0,10,0,0,0],"split_type":[0,0,0,0,0,0,0],"sum_hessian":[4.08898E3,2.053512E3,2.0354681E3,2.0440817E3,9.4302635E0,1.3147668E0,2.0427668E3],"tree_param":{"num_deleted":"0","num_feature":"15","num_nodes":"7","size_leaf_vector":"1"}},{"base_weights":[4.229843E-4,-1.0119404E0,3.0662566E-1,-1.0216082E0,2.7040118E-1,-6.331365E-2,-3.0664012E-1],"categories":[],"categories_nodes":[],"categories_segments":[],"categories_sizes":[],"default_left":[0,0,0,0,0,0,0],"id":10,"left_children":[1,3,-1,5,-1,-1,-1],"loss_changes":[3.15737E3,2.9283081E1,0E0,4.342041E-1,0E0,0E0,0E0],"parents":[2147483647,0,0,1,1,3,3],"right_children":[2,4,-1,6,-1,-1,-1],"split_conditions":[1.2E1,1.54E2,3.0662566E-1,1.06E0,2.7040118E-1,-6.331365E-2,-3.0664012E-1],"split_indices":[11,8,0,10,0,0,0],"split_type":[0,0,0,0,0,0,0],"sum_hessian":[3.050682E3,1.5323193E3,1.5183625E3,1.5250791E3,7.240237E0,1.2488911E0,1.5238303E3],"tree_param":{"num_deleted":"0","num_feature":"15","num_nodes":"7","size_leaf_vector":"1"}},{"base_weights":[4.926066E-4,-1.0052112E0,3.047551E-1,-1.0151696E0,2.5950116E-1,-5.432896E-2,-3.047661E-1],"categories":[],"categories_nodes":[],"categories_segments":[],"categories_sizes":[],"default_left":[0,0,0,0,0,0,0],"id":11,"left_children":[1,3,-1,5,-1,-1,-1],"loss_changes":[2.3222712E3,2.2156738E1,0E0,4.963379E-1,0E0,0E0,0E0],"parents":[2147483647,0,0,1,1,3,3],"right_children":[2,4,-1,6,-1,-1,-1],"split_conditions":[1.2E1,1.54E2,3.047551E-1,1.06E0,2.5950116E-1,-5.432896E-2,-3.047661E-1],"split_indices":[11,8,0,10,0,0,0],"split_type":[0,0,0,0,0,0,0],"sum_hessian":[2.2721743E3,1.1415189E3,1.1306555E3,1.1359276E3,5.591336E0,1.193839E0,1.1347338E3],"tree_param":{"num_deleted":"0","num_feature":"15","num_nodes":"7","size_leaf_vector":"1"}},{"base_weights":[5.82586E-4,-9.998338E-1,3.0334395E-1,-1.0095772E0,2.8259256E-1,-2.6792416E-2,-3.0320954E-1],"categories":[],"categories_nodes":[],"categories_segments":[],"categories_sizes":[],"default_left":[0,0,0,0,0,0,0],"id":12,"left_children":[1,3,-1,5,-1,-1,-1],"loss_changes":[1.7109227E3,1.7040955E1,0E0,7.8338623E-1,0E0,0E0,0E0],"parents":[2147483647,0,0,1,1,3,3],"right_children":[2,4,-1,6,-1,-1,-1],"split_conditions":[1.2E1,2.1E-1,3.0334395E-1,1.03E0,2.8259256E-1,-2.6792416E-2,-3.0320954E-1],"split_indices":[11,7,0,10,0,0,0],"split_type":[0,0,0,0,0,0,0],"sum_hessian":[1.6903331E3,8.494366E2,8.408965E2,8.456734E2,3.7632022E0,1.1272714E0,8.4454614E2],"tree_param":{"num_deleted":"0","num_feature":"15","num_nodes":"7","size_leaf_vector":"1"}},{"base_weights":[7.708979E-4,-9.955633E-1,3.022581E-1,-3.019175E-1,2.7239332E-1],"categories":[],"categories_nodes":[],"categories_segments":[],"categories_sizes":[],"default_left":[0,0,0,0,0],"id":13,"left_children":[1,3,-1,-1,-1],"loss_changes":[1.2625488E3,1.3953369E1,0E0,0E0,0E0],"parents":[2147483647,0,0,1,1],"right_children":[2,4,-1,-1,-1],"split_conditions":[1.54E2,2.1E-1,3.022581E-1,-3.019175E-1,2.7239332E-1],"split_indices":[8,7,0,0,0],"split_type":[0,0,0,0,0],"sum_hessian":[1.2566903E3,6.3161993E2,6.250704E2,6.285159E2,3.103999E0],"tree_param":{"num_deleted":"0","num_feature":"15","num_nodes":"5","size_leaf_vector":"1"}},{"base_weights":[1.0778847E-3,-9.914488E-1,3.0137515E-1,-1.0021293E0,2.5707853E-1,-5.1187556E-2,-3.01131E-1],"categories":[],"categories_nodes":[],"categories_segments":[],"categories_sizes":[],"default_left":[0,0,0,0,0,0,0],"id":14,"left_children":[1,3,-1,5,-1,-1,-1],"loss_changes":[9.3213696E2,1.014743E1,0E0,4.675598E-1,0E0,0E0,0E0],"parents":[2147483647,0,0,1,1,3,3],"right_children":[2,4,-1,6,-1,-1,-1],"split_conditions":[1.2E1,2.1E-1,3.0137515E-1,1.06E0,2.5707853E-1,-5.1187556E-2,-3.01131E-1],"split_indices":[11,7,0,10,0,0,0],"split_type":[0,0,0,0,0,0,0],"sum_hessian":[9.338745E2,4.695117E2,4.6436282E2,4.6726947E2,2.2421963E0,1.1269246E0,4.6614255E2],"tree_param":{"num_deleted":"0","num_feature":"15","num_nodes":"7","size_leaf_vector":"1"}},{"base_weights":[1.3600758E-3,-9.878202E-1,3.0063263E-1,-2.9996502E-1,2.4299192E-1],"categories":[],"categories_nodes":[],"categories_segments":[],"categories_sizes":[],"default_left":[0,0,0,0,0],"id":15,"left_children":[1,3,-1,-1,-1],"loss_changes":[6.889085E2,8.399994E0,0E0,0E0,0E0],"parents":[2147483647,0,0,1,1],"right_children":[2,4,-1,-1,-1],"split_conditions":[1.54E2,2.1E-1,3.0063263E-1,-2.9996502E-1,2.4299192E-1],"split_indices":[8,7,0,0,0],"split_type":[0,0,0,0,0],"sum_hessian":[6.9392285E2,3.4898495E2,3.4493787E2,3.4709976E2,1.8852056E0],"tree_param":{"num_deleted":"0","num_feature":"15","num_nodes":"5","size_leaf_vector":"1"}},{"base_weights":[1.8530258E-3,-9.8364407E-1,2.9994288E-1,2.2468083E-1,-9.963929E-1,-2.9997844E-1,-9.529152E-2],"categories":[],"categories_nodes":[],"categories_segments":[],"categories_sizes":[],"default_left":[0,0,0,0,0,0,0],"id":16,"left_children":[1,3,-1,-1,5,-1,-1],"loss_changes":[5.0911658E2,6.4993896E0,0E0,0E0,3.0386353E-1,0E0,0E0],"parents":[2147483647,0,0,1,1,4,4],"right_children":[2,4,-1,-1,6,-1,-1],"split_conditions":[1.2E1,1E0,2.9994288E-1,2.2468083E-1,9.95E2,-2.9997844E-1,-9.529152E-2],"split_indices":[11,10,0,0,9,0,0],"split_type":[0,0,0,0,0,0,0],"sum_hessian":[5.1566675E2,2.5946024E2,2.5620654E2,1.4734398E0,2.579868E2,2.5617935E2,1.8074307E0],"tree_param":{"num_deleted":"0","num_feature":"15","num_nodes":"7","size_leaf_vector":"1"}},{"base_weights":[2.149789E-3,-9.7917306E-1,2.9925692E-1,-9.9328035E-1,2.06776E-1,-2.9903403E-1,-1.0374651E-1],"categories":[],"categories_nodes":[],"categories_segments":[],"categories_sizes":[],"default_left":[0,0,0,0,0,0,0],"id":17,"left_children":[1,3,-1,5,-1,-1,-1],"loss_changes":[3.7636755E2,5.2514343E0,0E0,9.21936E-2,0E0,0E0,0E0],"parents":[2147483647,0,0,1,1,3,3],"right_children":[2,4,-1,6,-1,-1,-1],"split_conditions":[1.54E2,2.1E-1,2.9925692E-1,9.95E2,2.06776E-1,-2.9903403E-1,-1.0374651E-1],"split_indices":[8,7,0,9,0,0,0],"split_type":[0,0,0,0,0,0,0],"sum_hessian":[3.833136E2,1.930273E2,1.9028632E2,1.9181012E2,1.2171826E0,1.9024225E2,1.5678587E0],"tree_param":{"num_deleted":"0","num_feature":"15","num_nodes":"7","size_leaf_vector":"1"}},{"base_weights":[2.5023846E-3,-9.745375E-1,2.9850712E-1,-9.901745E-1,1.8886235E-1,-2.9837054E-1,-9.739227E-2],"categories":[],"categories_nodes":[],"categories_segments":[],"categories_sizes":[],"default_left":[0,0,0,0,0,0,0],"id":18,"left_children":[1,3,-1,5,-1,-1,-1],"loss_changes":[2.7843408E2,4.252655E0,0E0,9.73053E-2,0E0,0E0,0E0],"parents":[2147483647,0,0,1,1,3,3],"right_children":[2,4,-1,6,-1,-1,-1],"split_conditions":[1.2E1,2.1E-1,2.9850712E-1,9.95E2,1.8886235E-1,-2.9837054E-1,-9.739227E-2],"split_indices":[11,7,0,9,0,0,0],"split_type":[0,0,0,0,0,0,0],"sum_hessian":[2.8512457E2,1.43692E2,1.4143257E2,1.426838E2,1.0082035E0,1.412568E2,1.4269979E0],"tree_param":{"num_deleted":"0","num_feature":"15","num_nodes":"7","size_leaf_vector":"1"}},{"base_weights":[2.9019725E-3,-2.9761243E-1,9.7023916E-1,-1.6469729E-1,2.9768074E-1],"categories":[],"categories_nodes":[],"categories_segments":[],"categories_sizes":[],"default_left":[0,0,0,0,0],"id":19,"left_children":[1,-1,3,-1,-1],"loss_changes":[2.0618619E2,0E0,4.18013E0,0E0,0E0],"parents":[2147483647,0,0,2,2],"right_children":[2,-1,4,-1,-1],"split_conditions":[9.9E1,-2.9761243E-1,9E0,-1.6469729E-1,2.9768074E-1],"split_indices":[8,0,11,0,0],"split_type":[0,0,0,0,0],"sum_hessian":[2.1223141E2,1.0461024E2,1.0762118E2,1.1963735E0,1.06424805E2],"tree_param":{"num_deleted":"0","num_feature":"15","num_nodes":"5","size_leaf_vector":"1"}},{"base_weights":[1.9322273E-3,-9.6364105E-1,2.9654732E-1,-2.9652554E-1,-2.254317E-2,-1.5790129E-1,1.5498035E-1],"categories":[],"categories_nodes":[],"categories_segments":[],"categories_sizes":[],"default_left":[0,0,0,0,0,0,0],"id":20,"left_children":[1,3,-1,-1,5,-1,-1],"loss_changes":[1.5237645E2,1.8627472E0,0E0,0E0,1.1131394E0,0E0,0E0],"parents":[2147483647,0,0,1,1,4,4],"right_children":[2,4,-1,-1,6,-1,-1],"split_conditions":[1.54E2,9.9E1,2.9654732E-1,-2.9652554E-1,1.6E-1,-1.5790129E-1,1.5498035E-1],"split_indices":[8,8,0,0,12,0,0],"split_type":[0,0,0,0,0,0,0],"sum_hessian":[1.5795938E2,7.984047E1,7.811891E1,7.774335E1,2.0971184E0,1.096379E0,1.0007393E0],"tree_param":{"num_deleted":"0","num_feature":"15","num_nodes":"7","size_leaf_vector":"1"}},{"base_weights":[1.8799219E-3,-9.560445E-1,2.9517773E-1,5.753632E-2,-2.9369783E-1],"categories":[],"categories_nodes":[],"categories_segments":[],"categories_sizes":[],"default_left":[0,0,0,0,0],"id":21,"left_children":[1,3,-1,-1,-1],"loss_changes":[1.1267307E2,1.7848549E0,0E0,0E0,0E0],"parents":[2147483647,0,0,1,1],"right_children":[2,4,-1,-1,-1],"split_conditions":[1.2E1,1.3E0,2.9517773E-1,5.753632E-2,-2.9369783E-1],"split_indices":[11,10,0,0,0],"split_type":[0,0,0,0,0],"sum_hessian":[1.1777257E2,5.9631874E1,5.8140694E1,1.0246248E0,5.8607246E1],"tree_param":{"num_deleted":"0","num_feature":"15","num_nodes":"5","size_leaf_vector":"1"}},{"base_weights":[2.6627146E-3,-9.468302E-1,2.9344422E-1,-2.933967E-1,-2.4574322E-3],"categories":[],"categories_nodes":[],"categories_segments":[],"categories_sizes":[],"default_left":[0,0,0,0,0],"id":22,"left_children":[1,3,-1,-1,-1],"loss_changes":[8.347262E1,1.3277206E0,0E0,0E0,0E0],"parents":[2147483647,0,0,1,1],"right_children":[2,4,-1,-1,-1],"split_conditions":[1.54E2,9.9E1,2.9344422E-1,-2.933967E-1,-2.4574322E-3],"split_indices":[8,8,0,0,0],"split_type":[0,0,0,0,0],"sum_hessian":[8.812231E1,4.4670967E1,4.345134E1,4.3195152E1,1.4758154E0],"tree_param":{"num_deleted":"0","num_feature":"15","num_nodes":"5","size_leaf_vector":"1"}},{"base_weights":[2.4998847E-3,-9.298492E-1,2.9116103E-1,-2.911066E-1,-2.5916444E-3],"categories":[],"categories_nodes":[],"categories_segments":[],"categories_sizes":[],"default_left":[0,0,0,0,0],"id":23,"left_children":[1,3,-1,-1,-1],"loss_changes":[6.1466087E1,1.2861443E0,0E0,0E0,0E0],"parents":[2147483647,0,0,1,1],"right_children":[2,4,-1,-1,-1],"split_conditions":[1.2E1,9.9E1,2.9116103E-1,-2.911066E-1,-2.5916444E-3],"split_indices":[11,8,0,0,0],"split_type":[0,0,0,0,0],"sum_hessian":[6.610293E1,3.369224E1,3.241069E1,3.2222073E1,1.4701692E0],"tree_param":{"num_deleted":"0","num_feature":"15","num_nodes":"5","size_leaf_vector":"1"}},{"base_weights":[2.531553E-3,-9.1596186E-1,2.8827518E-1,-2.8814405E-1,-1.6307091E-2],"categories":[],"categories_nodes":[],"categories_segments":[],"categories_sizes":[],"default_left":[0,0,0,0,0],"id":24,"left_children":[1,3,-1,-1,-1],"loss_changes":[4.559319E1,9.6230316E-1,0E0,0E0,0E0],"parents":[2147483647,0,0,1,1],"right_children":[2,4,-1,-1,-1],"split_conditions":[1.54E2,9.9E1,2.8827518E-1,-2.8814405E-1,-1.6307091E-2],"split_indices":[8,8,0,0,0],"split_type":[0,0,0,0,0],"sum_hessian":[4.979462E1,2.5449095E1,2.4345524E1,2.408965E1,1.359446E0],"tree_param":{"num_deleted":"0","num_feature":"15","num_nodes":"5","size_leaf_vector":"1"}},{"base_weights":[2.1449057E-3,-8.908261E-1,2.8450206E-1,7.033896E-3,-2.82397E-1],"categories":[],"categories_nodes":[],"categories_segments":[],"categories_sizes":[],"default_left":[0,0,0,0,0],"id":25,"left_children":[1,3,-1,-1,-1],"loss_changes":[3.351475E1,9.642792E-1,0E0,0E0,0E0],"parents":[2147483647,0,0,1,1],"right_children":[2,4,-1,-1,-1],"split_conditions":[1.2E1,1.79E0,2.8450206E-1,7.033896E-3,-2.82397E-1],"split_indices":[11,10,0,0,0],"split_type":[0,0,0,0,0],"sum_hessian":[3.76661E1,1.9408169E1,1.8257929E1,1.0438849E0,1.8364285E1],"tree_param":{"num_deleted":"0","num_feature":"15","num_nodes":"5","size_leaf_vector":"1"}},{"base_weights":[2.670037E-3,-8.6911947E-1,2.7985224E-1,-2.7966085E-1,-7.1446802E-3],"categories":[],"categories_nodes":[],"categories_segments":[],"categories_sizes":[],"default_left":[0,0,0,0,0],"id":26,"left_children":[1,3,-1,-1,-1],"loss_changes":[2.4873316E1,8.2219696E-1,0E0,0E0,0E0],"parents":[2147483647,0,0,1,1],"right_children":[2,4,-1,-1,-1],"split_conditions":[1.54E2,9.9E1,2.7985224E-1,-2.7966085E-1,-7.1446802E-3],"split_indices":[8,8,0,0,0],"split_type":[0,0,0,0,0],"sum_hessian":[2.8673422E1,1.4835082E1,1.3838339E1,1.3709191E1,1.1258914E0],"tree_param":{"num_deleted":"0","num_feature":"15","num_nodes":"5","size_leaf_vector":"1"}},{"base_weights":[2.4170496E-3,-8.334893E-1,2.7388155E-1,-2.7364644E-1,-6.012643E-3],"categories":[],"categories_nodes":[],"categories_segments":[],"categories_sizes":[],"default_left":[0,0,0,0,0],"id":27,"left_children":[1,3,-1,-1,-1],"loss_changes":[1.8230572E1,7.809248E-1,0E0,0E0,0E0],"parents":[2147483647,0,0,1,1],"right_children":[2,4,-1,-1,-1],"split_conditions":[1.54E2,9.9E1,2.7388155E-1,-2.7364644E-1,-6.012643E-3],"split_indices":[8,8,0,0,0],"split_type":[0,0,0,0,0],"sum_hessian":[2.1952833E1,1.1489486E1,1.0463348E1,1.0365711E1,1.1237749E0],"tree_param":{"num_deleted":"0","num_feature":"15","num_nodes":"5","size_leaf_vector":"1"}},{"base_weights":[2.116586E-3,-8.017715E-1,2.6675996E-1,-2.6626506E-1,-1.3396582E-2],"categories":[],"categories_nodes":[],"categories_segments":[],"categories_sizes":[],"default_left":[0,0,0,0,0],"id":28,"left_children":[1,3,-1,-1,-1],"loss_changes":[1.3524127E1,6.06585E-1,0E0,0E0,0E0],"parents":[2147483647,0,0,1,1],"right_children":[2,4,-1,-1,-1],"split_conditions":[1.2E1,9.9E1,2.6675996E-1,-2.6626506E-1,-1.3396582E-2],"split_indices":[11,8,0,0,0],"split_type":[0,0,0,0,0],"sum_hessian":[1.6965094E1,8.950336E0,8.014758E0,7.884745E0,1.0655917E0],"tree_param":{"num_deleted":"0","num_feature":"15","num_nodes":"5","size_leaf_vector":"1"}},{"base_weights":[9.5912797E-4,-7.5701123E-1,2.5802284E-1,-2.574207E-1,-1.2528663E-2],"categories":[],"categories_nodes":[],"categories_segments":[],"categories_sizes":[],"default_left":[0,0,0,0,0],"id":29,"left_children":[1,3,-1,-1,-1],"loss_changes":[9.921549E0,5.4930115E-1,0E0,0E0,0E0],"parents":[2147483647,0,0,1,1],"right_children":[2,4,-1,-1,-1],"split_conditions":[1.54E2,9.9E1,2.5802284E-1,-2.574207E-1,-1.2528663E-2],"split_indices":[8,8,0,0,0],"split_type":[0,0,0,0,0],"sum_hessian":[1.3236292E1,7.095243E0,6.1410484E0,6.0419025E0,1.0533404E0],"tree_param":{"num_deleted":"0","num_feature":"15","num_nodes":"5","size_leaf_vector":"1"}},{"base_weights":[1.619807E-4,-7.1671677E-1,2.4818788E-1,-2.4711472E-1,-1.716565E-2],"categories":[],"categories_nodes":[],"categories_segments":[],"categories_sizes":[],"default_left":[0,0,0,0,0],"id":30,"left_children":[1,3,-1,-1,-1],"loss_changes":[7.3911457E0,4.240806E-1,0E0,0E0,0E0],"parents":[2147483647,0,0,1,1],"right_children":[2,4,-1,-1,-1],"split_conditions":[1.2E1,9.9E1,2.4818788E-1,-2.4711472E-1,-1.716565E-2],"split_indices":[11,8,0,0,0],"split_type":[0,0,0,0,0],"sum_hessian":[1.0465016E1,5.6776543E0,4.787362E0,4.670839E0,1.0068153E0],"tree_param":{"num_deleted":"0","num_feature":"15","num_nodes":"5","size_leaf_vector":"1"}},{"base_weights":[-1.3319608E-3,-2.3806815E-1,6.8598336E-1,2.5243837E-2,2.4140711E-1],"categories":[],"categories_nodes":[],"categories_segments":[],"categories_sizes":[],"default_left":[0,0,0,0,0],"id":31,"left_children":[1,-1,3,-1,-1],"loss_changes":[5.6529384E0,0E0,3.295045E-1,0E0,0E0],"parents":[2147483647,0,0,2,2],"right_children":[2,-1,4,-1,-1],"split_conditions":[9E0,-2.3806815E-1,2E-1,2.5243837E-2,2.4140711E-1],"split_indices":[11,0,7,0,0],"split_type":[0,0,0,0,0],"sum_hessian":[8.381944E0,3.821984E0,4.5599594E0,1.0327642E0,3.5271952E0],"tree_param":{"num_deleted":"0","num_feature":"15","num_nodes":"5","size_leaf_vector":"1"}},{"base_weights":[2.059394E-3,6.469888E-1,-2.2651164E-1,3.703994E-2,2.2717138E-1],"categories":[],"categories_nodes":[],"categories_segments":[],"categories_sizes":[],"default_left":[0,0,0,0,0],"id":32,"left_children":[1,3,-1,-1,-1],"loss_changes":[4.32199E0,1.8229055E-1,0E0,0E0,0E0],"parents":[2147483647,0,0,1,1],"right_children":[2,4,-1,-1,-1],"split_conditions":[2E0,2.1E-1,-2.2651164E-1,3.703994E-2,2.2717138E-1],"split_indices":[5,7,0,0,0],"split_type":[0,0,0,0,0],"sum_hessian":[6.8510866E0,3.7781386E0,3.072948E0,1.0260037E0,2.7521348E0],"tree_param":{"num_deleted":"0","num_feature":"15","num_nodes":"5","size_leaf_vector":"1"}},{"base_weights":[5.8474643E-3,-2.1409726E-1,6.017033E-1,2.1178912E-1,4.0942438E-2],"categories":[],"categories_nodes":[],"categories_segments":[],"categories_sizes":[],"default_left":[0,0,0,0,0],"id":33,"left_children":[1,-1,3,-1,-1],"loss_changes":[3.2946224E0,0E0,1.0728991E-1,0E0,0E0],"parents":[2147483647,0,0,2,2],"right_children":[2,-1,4,-1,-1],"split_conditions":[9E0,-2.1409726E-1,1.21E0,2.1178912E-1,4.0942438E-2],"split_indices":[11,0,10,0,0],"split_type":[0,0,0,0,0],"sum_hessian":[5.68316E0,2.4849014E0,3.1982582E0,2.1900086E0,1.0082495E0],"tree_param":{"num_deleted":"0","num_feature":"15","num_nodes":"5","size_leaf_vector":"1"}},{"base_weights":[9.657911E-3,-1.6943496E-1,2.0404638E-1],"categories":[],"categories_nodes":[],"categories_segments":[],"categories_sizes":[],"default_left":[0,0,0],"id":34,"left_children":[1,-1,-1],"loss_changes":[2.6148891E0,0E0,0E0],"parents":[2147483647,0,0],"right_children":[2,-1,-1],"split_conditions":[1.2E1,-1.6943496E-1,2.0404638E-1],"split_indices":[11,0,0],"split_type":[0,0,0],"sum_hessian":[4.7917337E0,2.6656392E0,2.1260946E0],"tree_param":{"num_deleted":"0","num_feature":"15","num_nodes":"3","size_leaf_vector":"1"}},{"base_weights":[1.7345184E-2,1.6408548E-1,-1.9033183E-1],"categories":[],"categories_nodes":[],"categories_segments":[],"categories_sizes":[],"default_left":[0,0,0],"id":35,"left_children":[1,-1,-1],"loss_changes":[2.0954142E0,0E0,0E0],"parents":[2147483647,0,0],"right_children":[2,-1,-1],"split_conditions":[2E0,1.6408548E-1,-1.9033183E-1],"split_indices":[5,0,0],"split_type":[0,0,0],"sum_hessian":[4.0650663E0,2.3314724E0,1.7335938E0],"tree_param":{"num_deleted":"0","num_feature":"15","num_nodes":"3","size_leaf_vector":"1"}},{"base_weights":[6.1560087E-3,-1.8050927E-1,1.5340371E-1],"categories":[],"categories_nodes":[],"categories_segments":[],"categories_sizes":[],"default_left":[0,0,0],"id":36,"left_children":[1,-1,-1],"loss_changes":[1.6954167E0,0E0,0E0],"parents":[2147483647,0,0],"right_children":[2,-1,-1],"split_conditions":[9.9E1,-1.8050927E-1,1.5340371E-1],"split_indices":[8,0,0],"split_type":[0,0,0],"sum_hessian":[3.5191326E0,1.5105627E0,2.00857E0],"tree_param":{"num_deleted":"0","num_feature":"15","num_nodes":"3","size_leaf_vector":"1"}},{"base_weights":[-4.4893157E-3,1.4288515E-1,-1.7104283E-1],"categories":[],"categories_nodes":[],"categories_segments":[],"categories_sizes":[],"default_left":[0,0,0],"id":37,"left_children":[1,-1,-1],"loss_changes":[1.3782403E0,0E0,0E0],"parents":[2147483647,0,0],"right_children":[2,-1,-1],"split_conditions":[2E0,1.4288515E-1,-1.7104283E-1],"split_indices":[6,0,0],"split_type":[0,0,0],"sum_hessian":[3.0694487E0,1.7446172E0,1.3248315E0],"tree_param":{"num_deleted":"0","num_feature":"15","num_nodes":"3","size_leaf_vector":"1"}},{"base_weights":[-1.2207327E-2,-1.6174975E-1,1.3272488E-1],"categories":[],"categories_nodes":[],"categories_segments":[],"categories_sizes":[],"default_left":[0,0,0],"id":38,"left_children":[1,-1,-1],"loss_changes":[1.126427E0,0E0,0E0],"parents":[2147483647,0,0],"right_children":[2,-1,-1],"split_conditions":[9E0,-1.6174975E-1,1.3272488E-1],"split_indices":[11,0,0],"split_type":[0,0,0],"sum_hessian":[2.706222E0,1.1672689E0,1.5389532E0],"tree_param":{"num_deleted":"0","num_feature":"15","num_nodes":"3","size_leaf_vector":"1"}},{"base_weights":[-1.9596387E-2,-1.516183E-1,1.2537836E-1],"categories":[],"categories_nodes":[],"categories_segments":[],"categories_sizes":[],"default_left":[0,0,0],"id":39,"left_children":[1,-1,-1],"loss_changes":[9.3500096E-1,0E0,0E0],"parents":[2147483647,0,0],"right_children":[2,-1,-1],"split_conditions":[1.1E-1,-1.516183E-1,1.2537836E-1],"split_indices":[7,0,0],"split_type":[0,0,0],"sum_hessian":[2.40526E0,1.0662469E0,1.3390132E0],"tree_param":{"num_deleted":"0","num_feature":"15","num_nodes":"3","size_leaf_vector":"1"}},{"base_weights":[-2.5189754E-2,-1.3085845E-1,1.161068E-1],"categories":[],"categories_nodes":[],"categories_segments":[],"categories_sizes":[],"default_left":[0,0,0],"id":40,"left_children":[1,-1,-1],"loss_changes":[7.0278835E-1,0E0,0E0],"parents":[2147483647,0,0],"right_children":[2,-1,-1],"split_conditions":[1.4E-1,-1.3085845E-1,1.161068E-1],"split_indices":[7,0,0],"split_type":[0,0,0],"sum_hessian":[2.1517332E0,1.0483118E0,1.1034213E0],"tree_param":{"num_deleted":"0","num_feature":"15","num_nodes":"3","size_leaf_vector":"1"}},{"base_weights":[-2.3504091E-2],"categories":[],"categories_nodes":[],"categories_segments":[],"categories_sizes":[],"default_left":[0],"id":41,"left_children":[-1],"loss_changes":[0E0],"parents":[2147483647],"right_children":[-1],"split_conditions":[-7.0512276E-3],"split_indices":[0],"split_type":[0],"sum_hessian":[1.9646875E0],"tree_param":{"num_deleted":"0","num_feature":"15","num_nodes":"1","size_leaf_vector":"1"}},{"base_weights":[-1.9718232E-2],"categories":[],"categories_nodes":[],"categories_segments":[],"categories_sizes":[],"default_left":[0],"id":42,"left_children":[-1],"loss_changes":[0E0],"parents":[2147483647],"right_children":[-1],"split_conditions":[-5.91547E-3],"split_indices":[0],"split_type":[0],"sum_hessian":[1.9613991E0],"tree_param":{"num_deleted":"0","num_feature":"15","num_nodes":"1","size_leaf_vector":"1"}},{"base_weights":[-1.4943934E-2],"categories":[],"categories_nodes":[],"categories_segments":[],"categories_sizes":[],"default_left":[0],"id":43,"left_children":[-1],"loss_changes":[0E0],"parents":[2147483647],"right_children":[-1],"split_conditions":[-4.4831806E-3],"split_indices":[0],"split_type":[0],"sum_hessian":[1.9633554E0],"tree_param":{"num_deleted":"0","num_feature":"15","num_nodes":"1","size_leaf_vector":"1"}},{"base_weights":[-1.24902725E-2],"categories":[],"categories_nodes":[],"categories_segments":[],"categories_sizes":[],"default_left":[0],"id":44,"left_children":[-1],"loss_changes":[0E0],"parents":[2147483647],"right_children":[-1],"split_conditions":[-3.7470818E-3],"split_indices":[0],"split_type":[0],"sum_hessian":[1.9614855E0],"tree_param":{"num_deleted":"0","num_feature":"15","num_nodes":"1","size_leaf_vector":"1"}},{"base_weights":[-1.0661398E-2],"categories":[],"categories_nodes":[],"categories_segments":[],"categories_sizes":[],"default_left":[0],"id":45,"left_children":[-1],"loss_changes":[0E0],"parents":[2147483647],"right_children":[-1],"split_conditions":[-3.1984195E-3],"split_indices":[0],"split_type":[0],"sum_hessian":[1.959296E0],"tree_param":{"num_deleted":"0","num_feature":"15","num_nodes":"1","size_leaf_vector":"1"}},{"base_weights":[-9.237073E-3],"categories":[],"categories_nodes":[],"categories_segments":[],"categories_sizes":[],"default_left":[0],"id":46,"left_children":[-1],"loss_changes":[0E0],"parents":[2147483647],"right_children":[-1],"split_conditions":[-2.7711221E-3],"split_indices":[0],"split_type":[0],"sum_hessian":[1.957041E0],"tree_param":{"num_deleted":"0","num_feature":"15","num_nodes":"1","size_leaf_vector":"1"}},{"base_weights":[-5.8961445E-3],"categories":[],"categories_nodes":[],"categories_segments":[],"categories_sizes":[],"default_left":[0],"id":47,"left_children":[-1],"loss_changes":[0E0],"parents":[2147483647],"right_children":[-1],"split_conditions":[-1.7688434E-3],"split_indices":[0],"split_type":[0],"sum_hessian":[1.9612876E0],"tree_param":{"num_deleted":"0","num_feature":"15","num_nodes":"1","size_leaf_vector":"1"}},{"base_weights":[-4.7032544E-3],"categories":[],"categories_nodes":[],"categories_segments":[],"categories_sizes":[],"default_left":[0],"id":48,"left_children":[-1],"loss_changes":[0E0],"parents":[2147483647],"right_children":[-1],"split_conditions":[-1.4109764E-3],"split_indices":[0],"split_type":[0],"sum_hessian":[1.9612485E0],"tree_param":{"num_deleted":"0","num_feature":"15","num_nodes":"1","size_leaf_vector":"1"}},{"base_weights":[-3.975275E-3],"categories":[],"categories_nodes":[],"categories_segments":[],"categories_sizes":[],"default_left":[0],"id":49,"left_children":[-1],"loss_changes":[0E0],"parents":[2147483647],"right_children":[-1],"split_conditions":[-1.1925825E-3],"split_indices":[0],"split_type":[0],"sum_hessian":[1.9605618E0],"tree_param":{"num_deleted":"0","num_feature":"15","num_nodes":"1","size_leaf_vector":"1"}},{"base_weights":[-3.4920461E-3],"categories":[],"categories_nodes":[],"categories_segments":[],"categories_sizes":[],"default_left":[0],"id":50,"left_children":[-1],"loss_changes":[0E0],"parents":[2147483647],"right_children":[-1],"split_conditions":[-1.0476139E-3],"split_indices":[0],"split_type":[0],"sum_hessian":[1.9595938E0],"tree_param":{"num_deleted":"0","num_feature":"15","num_nodes":"1","size_leaf_vector":"1"}},{"base_weights":[-2.9953662E-3],"categories":[],"categories_nodes":[],"categories_segments":[],"categories_sizes":[],"default_left":[0],"id":51,"left_children":[-1],"loss_changes":[0E0],"parents":[2147483647],"right_children":[-1],"split_conditions":[-8.986099E-4],"split_indices":[0],"split_type":[0],"sum_hessian":[1.9589578E0],"tree_param":{"num_deleted":"0","num_feature":"15","num_nodes":"1","size_leaf_vector":"1"}},{"base_weights":[-2.6339309E-3],"categories":[],"categories_nodes":[],"categories_segments":[],"categories_sizes":[],"default_left":[0],"id":52,"left_children":[-1],"loss_changes":[0E0],"parents":[2147483647],"right_children":[-1],"split_conditions":[-7.901793E-4],"split_indices":[0],"split_type":[0],"sum_hessian":[1.9582239E0],"tree_param":{"num_deleted":"0","num_feature":"15","num_nodes":"1","size_leaf_vector":"1"}},{"base_weights":[-2.300067E-3],"categories":[],"categories_nodes":[],"categories_segments":[],"categories_sizes":[],"default_left":[0],"id":53,"left_children":[-1],"loss_changes":[0E0],"parents":[2147483647],"right_children":[-1],"split_conditions":[-6.9002016E-4],"split_indices":[0],"split_type":[0],"sum_hessian":[1.9576257E0],"tree_param":{"num_deleted":"0","num_feature":"15","num_nodes":"1","size_leaf_vector":"1"}},{"base_weights":[-1.8349328E-3],"categories":[],"categories_nodes":[],"categories_segments":[],"categories_sizes":[],"default_left":[0],"id":54,"left_children":[-1],"loss_changes":[0E0],"parents":[2147483647],"right_children":[-1],"split_conditions":[-5.5047986E-4],"split_indices":[0],"split_type":[0],"sum_hessian":[1.9576163E0],"tree_param":{"num_deleted":"0","num_feature":"15","num_nodes":"1","size_leaf_vector":"1"}},{"base_weights":[-1.5909446E-3],"categories":[],"categories_nodes":[],"categories_segments":[],"categories_sizes":[],"default_left":[0],"id":55,"left_children":[-1],"loss_changes":[0E0],"parents":[2147483647],"right_children":[-1],"split_conditions":[-4.772834E-4],"split_indices":[0],"split_type":[0],"sum_hessian":[1.9572352E0],"tree_param":{"num_deleted":"0","num_feature":"15","num_nodes":"1","size_leaf_vector":"1"}},{"base_weights":[-1.3909492E-3],"categories":[],"categories_nodes":[],"categories_segments":[],"categories_sizes":[],"default_left":[0],"id":56,"left_children":[-1],"loss_changes":[0E0],"parents":[2147483647],"right_children":[-1],"split_conditions":[-4.1728478E-4],"split_indices":[0],"split_type":[0],"sum_hessian":[1.9568714E0],"tree_param":{"num_deleted":"0","num_feature":"15","num_nodes":"1","size_leaf_vector":"1"}},{"base_weights":[-1.2255992E-3],"categories":[],"categories_nodes":[],"categories_segments":[],"categories_sizes":[],"default_left":[0],"id":57,"left_children":[-1],"loss_changes":[0E0],"parents":[2147483647],"right_children":[-1],"split_conditions":[-3.6767978E-4],"split_indices":[0],"split_type":[0],"sum_hessian":[1.956524E0],"tree_param":{"num_deleted":"0","num_feature":"15","num_nodes":"1","size_leaf_vector":"1"}},{"base_weights":[-9.835915E-4],"categories":[],"categories_nodes":[],"categories_segments":[],"categories_sizes":[],"default_left":[0],"id":58,"left_children":[-1],"loss_changes":[0E0],"parents":[2147483647],"right_children":[-1],"split_conditions":[-2.9507748E-4],"split_indices":[0],"split_type":[0],"sum_hessian":[1.9565026E0],"tree_param":{"num_deleted":"0","num_feature":"15","num_nodes":"1","size_leaf_vector":"1"}},{"base_weights":[-8.59775E-4],"categories":[],"categories_nodes":[],"categories_segments":[],"categories_sizes":[],"default_left":[0],"id":59,"left_children":[-1],"loss_changes":[0E0],"parents":[2147483647],"right_children":[-1],"split_conditions":[-2.5793252E-4],"split_indices":[0],"split_type":[0],"sum_hessian":[1.9562788E0],"tree_param":{"num_deleted":"0","num_feature":"15","num_nodes":"1","size_leaf_vector":"1"}},{"base_weights":[-7.5866294E-4],"categories":[],"categories_nodes":[],"categories_segments":[],"categories_sizes":[],"default_left":[0],"id":60,"left_children":[-1],"loss_changes":[0E0],"parents":[2147483647],"right_children":[-1],"split_conditions":[-2.275989E-4],"split_indices":[0],"split_type":[0],"sum_hessian":[1.9560624E0],"tree_param":{"num_deleted":"0","num_feature":"15","num_nodes":"1","size_leaf_vector":"1"}},{"base_weights":[-6.554986E-4],"categories":[],"categories_nodes":[],"categories_segments":[],"categories_sizes":[],"default_left":[0],"id":61,"left_children":[-1],"loss_changes":[0E0],"parents":[2147483647],"right_children":[-1],"split_conditions":[-1.9664959E-4],"split_indices":[0],"split_type":[0],"sum_hessian":[1.9559115E0],"tree_param":{"num_deleted":"0","num_feature":"15","num_nodes":"1","size_leaf_vector":"1"}},{"base_weights":[-5.569193E-4],"categories":[],"categories_nodes":[],"categories_segments":[],"categories_sizes":[],"default_left":[0],"id":62,"left_children":[-1],"loss_changes":[0E0],"parents":[2147483647],"right_children":[-1],"split_conditions":[-1.670758E-4],"split_indices":[0],"split_type":[0],"sum_hessian":[1.95581E0],"tree_param":{"num_deleted":"0","num_feature":"15","num_nodes":"1","size_leaf_vector":"1"}},{"base_weights":[1.8917188E-3],"categories":[],"categories_nodes":[],"categories_segments":[],"categories_sizes":[],"default_left":[0],"id":63,"left_children":[-1],"loss_changes":[0E0],"parents":[2147483647],"right_children":[-1],"split_conditions":[5.675157E-4],"split_indices":[0],"split_type":[0],"sum_hessian":[1.9627268E0],"tree_param":{"num_deleted":"0","num_feature":"15","num_nodes":"1","size_leaf_vector":"1"}},{"base_weights":[-7.3667127E-4],"categories":[],"categories_nodes":[],"categories_segments":[],"categories_sizes":[],"default_left":[0],"id":64,"left_children":[-1],"loss_changes":[0E0],"parents":[2147483647],"right_children":[-1],"split_conditions":[-2.2100139E-4],"split_indices":[0],"split_type":[0],"sum_hessian":[1.9560798E0],"tree_param":{"num_deleted":"0","num_feature":"15","num_nodes":"1","size_leaf_vector":"1"}},{"base_weights":[-6.4889964E-4],"categories":[],"categories_nodes":[],"categories_segments":[],"categories_sizes":[],"default_left":[0],"id":65,"left_children":[-1],"loss_changes":[0E0],"parents":[2147483647],"right_children":[-1],"split_conditions":[-1.946699E-4],"split_indices":[0],"split_type":[0],"sum_hessian":[1.9558967E0],"tree_param":{"num_deleted":"0","num_feature":"15","num_nodes":"1","size_leaf_vector":"1"}},{"base_weights":[-5.508417E-4],"categories":[],"categories_nodes":[],"categories_segments":[],"categories_sizes":[],"default_left":[0],"id":66,"left_children":[-1],"loss_changes":[0E0],"parents":[2147483647],"right_children":[-1],"split_conditions":[-1.6525251E-4],"split_indices":[0],"split_type":[0],"sum_hessian":[1.9557976E0],"tree_param":{"num_deleted":"0","num_feature":"15","num_nodes":"1","size_leaf_vector":"1"}},{"base_weights":[1.8967519E-3],"categories":[],"categories_nodes":[],"categories_segments":[],"categories_sizes":[],"default_left":[0],"id":67,"left_children":[-1],"loss_changes":[0E0],"parents":[2147483647],"right_children":[-1],"split_conditions":[5.690256E-4],"split_indices":[0],"split_type":[0],"sum_hessian":[1.962715E0],"tree_param":{"num_deleted":"0","num_feature":"15","num_nodes":"1","size_leaf_vector":"1"}},{"base_weights":[-7.323109E-4],"categories":[],"categories_nodes":[],"categories_segments":[],"categories_sizes":[],"default_left":[0],"id":68,"left_children":[-1],"loss_changes":[0E0],"parents":[2147483647],"right_children":[-1],"split_conditions":[-2.1969328E-4],"split_indices":[0],"split_type":[0],"sum_hessian":[1.9560697E0],"tree_param":{"num_deleted":"0","num_feature":"15","num_nodes":"1","size_leaf_vector":"1"}},{"base_weights":[-6.4527005E-4],"categories":[],"categories_nodes":[],"categories_segments":[],"categories_sizes":[],"default_left":[0],"id":69,"left_children":[-1],"loss_changes":[0E0],"parents":[2147483647],"right_children":[-1],"split_conditions":[-1.9358103E-4],"split_indices":[0],"split_type":[0],"sum_hessian":[1.9558882E0],"tree_param":{"num_deleted":"0","num_feature":"15","num_nodes":"1","size_leaf_vector":"1"}},{"base_weights":[-5.4731715E-4],"categories":[],"categories_nodes":[],"categories_segments":[],"categories_sizes":[],"default_left":[0],"id":70,"left_children":[-1],"loss_changes":[0E0],"parents":[2147483647],"right_children":[-1],"split_conditions":[-1.6419515E-4],"split_indices":[0],"split_type":[0],"sum_hessian":[1.9557904E0],"tree_param":{"num_deleted":"0","num_feature":"15","num_nodes":"1","size_leaf_vector":"1"}},{"base_weights":[1.899648E-3],"categories":[],"categories_nodes":[],"categories_segments":[],"categories_sizes":[],"default_left":[0],"id":71,"left_children":[-1],"loss_changes":[0E0],"parents":[2147483647],"right_children":[-1],"split_conditions":[5.6989444E-4],"split_indices":[0],"split_type":[0],"sum_hessian":[1.9627081E0],"tree_param":{"num_deleted":"0","num_feature":"15","num_nodes":"1","size_leaf_vector":"1"}},{"base_weights":[-7.29764E-4],"categories":[],"categories_nodes":[],"categories_segments":[],"categories_sizes":[],"default_left":[0],"id":72,"left_children":[-1],"loss_changes":[0E0],"parents":[2147483647],"right_children":[-1],"split_conditions":[-2.1892921E-4],"split_indices":[0],"split_type":[0],"sum_hessian":[1.9560636E0],"tree_param":{"num_deleted":"0","num_feature":"15","num_nodes":"1","size_leaf_vector":"1"}},{"base_weights":[-6.4275635E-4],"categories":[],"categories_nodes":[],"categories_segments":[],"categories_sizes":[],"default_left":[0],"id":73,"left_children":[-1],"loss_changes":[0E0],"parents":[2147483647],"right_children":[-1],"split_conditions":[-1.9282692E-4],"split_indices":[0],"split_type":[0],"sum_hessian":[1.9558822E0],"tree_param":{"num_deleted":"0","num_feature":"15","num_nodes":"1","size_leaf_vector":"1"}},{"base_weights":[-5.451719E-4],"categories":[],"categories_nodes":[],"categories_segments":[],"categories_sizes":[],"default_left":[0],"id":74,"left_children":[-1],"loss_changes":[0E0],"parents":[2147483647],"right_children":[-1],"split_conditions":[-1.6355158E-4],"split_indices":[0],"split_type":[0],"sum_hessian":[1.9557854E0],"tree_param":{"num_deleted":"0","num_feature":"15","num_nodes":"1","size_leaf_vector":"1"}},{"base_weights":[1.9016188E-3],"categories":[],"categories_nodes":[],"categories_segments":[],"categories_sizes":[],"default_left":[0],"id":75,"left_children":[-1],"loss_changes":[0E0],"parents":[2147483647],"right_children":[-1],"split_conditions":[5.7048566E-4],"split_indices":[0],"split_type":[0],"sum_hessian":[1.9627043E0],"tree_param":{"num_deleted":"0","num_feature":"15","num_nodes":"1","size_leaf_vector":"1"}},{"base_weights":[-7.277524E-4],"categories":[],"categories_nodes":[],"categories_segments":[],"categories_sizes":[],"default_left":[0],"id":76,"left_children":[-1],"loss_changes":[0E0],"parents":[2147483647],"right_children":[-1],"split_conditions":[-2.1832573E-4],"split_indices":[0],"split_type":[0],"sum_hessian":[1.95606E0],"tree_param":{"num_deleted":"0","num_feature":"15","num_nodes":"1","size_leaf_vector":"1"}},{"base_weights":[-6.412965E-4],"categories":[],"categories_nodes":[],"categories_segments":[],"categories_sizes":[],"default_left":[0],"id":77,"left_children":[-1],"loss_changes":[0E0],"parents":[2147483647],"right_children":[-1],"split_conditions":[-1.9238896E-4],"split_indices":[0],"split_type":[0],"sum_hessian":[1.9558789E0],"tree_param":{"num_deleted":"0","num_feature":"15","num_nodes":"1","size_leaf_vector":"1"}},{"base_weights":[-5.4377265E-4],"categories":[],"categories_nodes":[],"categories_segments":[],"categories_sizes":[],"default_left":[0],"id":78,"left_children":[-1],"loss_changes":[0E0],"parents":[2147483647],"right_children":[-1],"split_conditions":[-1.631318E-4],"split_indices":[0],"split_type":[0],"sum_hessian":[1.9557818E0],"tree_param":{"num_deleted":"0","num_feature":"15","num_nodes":"1","size_leaf_vector":"1"}},{"base_weights":[1.9029967E-3],"categories":[],"categories_nodes":[],"categories_segments":[],"categories_sizes":[],"default_left":[0],"id":79,"left_children":[-1],"loss_changes":[0E0],"parents":[2147483647],"right_children":[-1],"split_conditions":[5.7089905E-4],"split_indices":[0],"split_type":[0],"sum_hessian":[1.9627008E0],"tree_param":{"num_deleted":"0","num_feature":"15","num_nodes":"1","size_leaf_vector":"1"}},{"base_weights":[-7.2651834E-4],"categories":[],"categories_nodes":[],"categories_segments":[],"categories_sizes":[],"default_left":[0],"id":80,"left_children":[-1],"loss_changes":[0E0],"parents":[2147483647],"right_children":[-1],"split_conditions":[-2.1795552E-4],"split_indices":[0],"split_type":[0],"sum_hessian":[1.956058E0],"tree_param":{"num_deleted":"0","num_feature":"15","num_nodes":"1","size_leaf_vector":"1"}},{"base_weights":[-6.4024824E-4],"categories":[],"categories_nodes":[],"categories_segments":[],"categories_sizes":[],"default_left":[0],"id":81,"left_children":[-1],"loss_changes":[0E0],"parents":[2147483647],"right_children":[-1],"split_conditions":[-1.9207448E-4],"split_indices":[0],"split_type":[0],"sum_hessian":[1.9558762E0],"tree_param":{"num_deleted":"0","num_feature":"15","num_nodes":"1","size_leaf_vector":"1"}},{"base_weights":[-5.430268E-4],"categories":[],"categories_nodes":[],"categories_segments":[],"categories_sizes":[],"default_left":[0],"id":82,"left_children":[-1],"loss_changes":[0E0],"parents":[2147483647],"right_children":[-1],"split_conditions":[-1.6290804E-4],"split_indices":[0],"split_type":[0],"sum_hessian":[1.9557801E0],"tree_param":{"num_deleted":"0","num_feature":"15","num_nodes":"1","size_leaf_vector":"1"}},{"base_weights":[1.9037348E-3],"categories":[],"categories_nodes":[],"categories_segments":[],"categories_sizes":[],"default_left":[0],"id":83,"left_children":[-1],"loss_changes":[0E0],"parents":[2147483647],"right_children":[-1],"split_conditions":[5.711205E-4],"split_indices":[0],"split_type":[0],"sum_hessian":[1.962699E0],"tree_param":{"num_deleted":"0","num_feature":"15","num_nodes":"1","size_leaf_vector":"1"}},{"base_weights":[-7.2581816E-4],"categories":[],"categories_nodes":[],"categories_segments":[],"categories_sizes":[],"default_left":[0],"id":84,"left_children":[-1],"loss_changes":[0E0],"parents":[2147483647],"right_children":[-1],"split_conditions":[-2.1774546E-4],"split_indices":[0],"split_type":[0],"sum_hessian":[1.9560562E0],"tree_param":{"num_deleted":"0","num_feature":"15","num_nodes":"1","size_leaf_vector":"1"}},{"base_weights":[-6.398402E-4],"categories":[],"categories_nodes":[],"categories_segments":[],"categories_sizes":[],"default_left":[0],"id":85,"left_children":[-1],"loss_changes":[0E0],"parents":[2147483647],"right_children":[-1],"split_conditions":[-1.9195207E-4],"split_indices":[0],"split_type":[0],"sum_hessian":[1.9558754E0],"tree_param":{"num_deleted":"0","num_feature":"15","num_nodes":"1","size_leaf_vector":"1"}},{"base_weights":[-5.426122E-4],"categories":[],"categories_nodes":[],"categories_segments":[],"categories_sizes":[],"default_left":[0],"id":86,"left_children":[-1],"loss_changes":[0E0],"parents":[2147483647],"right_children":[-1],"split_conditions":[-1.6278368E-4],"split_indices":[0],"split_type":[0],"sum_hessian":[1.9557793E0],"tree_param":{"num_deleted":"0","num_feature":"15","num_nodes":"1","size_leaf_vector":"1"}},{"base_weights":[1.9041072E-3],"categories":[],"categories_nodes":[],"categories_segments":[],"categories_sizes":[],"default_left":[0],"id":87,"left_children":[-1],"loss_changes":[0E0],"parents":[2147483647],"right_children":[-1],"split_conditions":[5.712322E-4],"split_indices":[0],"split_type":[0],"sum_hessian":[1.9626982E0],"tree_param":{"num_deleted":"0","num_feature":"15","num_nodes":"1","size_leaf_vector":"1"}},{"base_weights":[-7.252847E-4],"categories":[],"categories_nodes":[],"categories_segments":[],"categories_sizes":[],"default_left":[0],"id":88,"left_children":[-1],"loss_changes":[0E0],"parents":[2147483647],"right_children":[-1],"split_conditions":[-2.1758542E-4],"split_indices":[0],"split_type":[0],"sum_hessian":[1.9560559E0],"tree_param":{"num_deleted":"0","num_feature":"15","num_nodes":"1","size_leaf_vector":"1"}},{"base_weights":[-6.395085E-4],"categories":[],"categories_nodes":[],"categories_segments":[],"categories_sizes":[],"default_left":[0],"id":89,"left_children":[-1],"loss_changes":[0E0],"parents":[2147483647],"right_children":[-1],"split_conditions":[-1.9185255E-4],"split_indices":[0],"split_type":[0],"sum_hessian":[1.9558744E0],"tree_param":{"num_deleted":"0","num_feature":"15","num_nodes":"1","size_leaf_vector":"1"}},{"base_weights":[-5.42293E-4],"categories":[],"categories_nodes":[],"categories_segments":[],"categories_sizes":[],"default_left":[0],"id":90,"left_children":[-1],"loss_changes":[0E0],"parents":[2147483647],"right_children":[-1],"split_conditions":[-1.6268791E-4],"split_indices":[0],"split_type":[0],"sum_hessian":[1.9557785E0],"tree_param":{"num_deleted":"0","num_feature":"15","num_nodes":"1","size_leaf_vector":"1"}},{"base_weights":[1.9044611E-3],"categories":[],"categories_nodes":[],"categories_segments":[],"categories_sizes":[],"default_left":[0],"id":91,"left_children":[-1],"loss_changes":[0E0],"parents":[2147483647],"right_children":[-1],"split_conditions":[5.7133834E-4],"split_indices":[0],"split_type":[0],"sum_hessian":[1.9626974E0],"tree_param":{"num_deleted":"0","num_feature":"15","num_nodes":"1","size_leaf_vector":"1"}},{"base_weights":[-7.2495727E-4],"categories":[],"categories_nodes":[],"categories_segments":[],"categories_sizes":[],"default_left":[0],"id":92,"left_children":[-1],"loss_changes":[0E0],"parents":[2147483647],"right_children":[-1],"split_conditions":[-2.1748719E-4],"split_indices":[0],"split_type":[0],"sum_hessian":[1.9560549E0],"tree_param":{"num_deleted":"0","num_feature":"15","num_nodes":"1","size_leaf_vector":"1"}},{"base_weights":[-6.3917204E-4],"categories":[],"categories_nodes":[],"categories_segments":[],"categories_sizes":[],"default_left":[0],"id":93,"left_children":[-1],"loss_changes":[0E0],"parents":[2147483647],"right_children":[-1],"split_conditions":[-1.9175162E-4],"split_indices":[0],"split_type":[0],"sum_hessian":[1.9558737E0],"tree_param":{"num_deleted":"0","num_feature":"15","num_nodes":"1","size_leaf_vector":"1"}},{"base_weights":[-5.4198585E-4],"categories":[],"categories_nodes":[],"categories_segments":[],"categories_sizes":[],"default_left":[0],"id":94,"left_children":[-1],"loss_changes":[0E0],"parents":[2147483647],"right_children":[-1],"split_conditions":[-1.6259577E-4],"split_indices":[0],"split_type":[0],"sum_hessian":[1.9557775E0],"tree_param":{"num_deleted":"0","num_feature":"15","num_nodes":"1","size_leaf_vector":"1"}},{"base_weights":[1.9044775E-3],"categories":[],"categories_nodes":[],"categories_segments":[],"categories_sizes":[],"default_left":[0],"id":95,"left_children":[-1],"loss_changes":[0E0],"parents":[2147483647],"right_children":[-1],"split_conditions":[5.713433E-4],"split_indices":[0],"split_type":[0],"sum_hessian":[1.9626974E0],"tree_param":{"num_deleted":"0","num_feature":"15","num_nodes":"1","size_leaf_vector":"1"}},{"base_weights":[-7.2490034E-4],"categories":[],"categories_nodes":[],"categories_segments":[],"categories_sizes":[],"default_left":[0],"id":96,"left_children":[-1],"loss_changes":[0E0],"parents":[2147483647],"right_children":[-1],"split_conditions":[-2.1747011E-4],"split_indices":[0],"split_type":[0],"sum_hessian":[1.956055E0],"tree_param":{"num_deleted":"0","num_feature":"15","num_nodes":"1","size_leaf_vector":"1"}},{"base_weights":[-6.391349E-4],"categories":[],"categories_nodes":[],"categories_segments":[],"categories_sizes":[],"default_left":[0],"id":97,"left_children":[-1],"loss_changes":[0E0],"parents":[2147483647],"right_children":[-1],"split_conditions":[-1.9174047E-4],"split_indices":[0],"split_type":[0],"sum_hessian":[1.9558737E0],"tree_param":{"num_deleted":"0","num_feature":"15","num_nodes":"1","size_leaf_vector":"1"}},{"base_weights":[-5.419282E-4],"categories":[],"categories_nodes":[],"categories_segments":[],"categories_sizes":[],"default_left":[0],"id":98,"left_children":[-1],"loss_changes":[0E0],"parents":[2147483647],"right_children":[-1],"split_conditions":[-1.6257848E-4],"split_indices":[0],"split_type":[0],"sum_hessian":[1.9557775E0],"tree_param":{"num_deleted":"0","num_feature":"15","num_nodes":"1","size_leaf_vector":"1"}},{"base_weights":[1.904513E-3],"categories":[],"categories_nodes":[],"categories_segments":[],"categories_sizes":[],"default_left":[0],"id":99,"left_children":[-1],"loss_changes":[0E0],"parents":[2147483647],"right_children":[-1],"split_conditions":[5.7135394E-4],"split_indices":[0],"split_type":[0],"sum_hessian":[1.9626974E0],"tree_param":{"num_deleted":"0","num_feature":"15","num_nodes":"1","size_leaf_vector":"1"}}]},"name":"gbtree"},"learner_model_param":{"base_score":"5.005929E-1","boost_from_average":"1","num_class":"0","num_feature":"15","num_target":"1"},"objective":{"name":"binary:logistic","reg_loss_param":{"scale_pos_weight":"1"}}},"version":[2,1,4]}